<?xml version="1.0"?>
<opencv_storage>
<cascade>
  <stageType>BOOST</stageType>
  <featureType>LBP</featureType>
  <height>100</height>
  <width>100</width>
  <stageParams>
    <boostType>GAB</boostType>
    <minHitRate>9.9500000476837158e-01</minHitRate>
    <maxFalseAlarm>5.0000000000000000e-01</maxFalseAlarm>
    <weightTrimRate>9.4999999999999996e-01</weightTrimRate>
    <maxDepth>1</maxDepth>
    <maxWeakCount>100</maxWeakCount></stageParams>
  <featureParams>
    <maxCatCount>256</maxCatCount>
    <featSize>1</featSize></featureParams>
  <stageNum>5</stageNum>
  <stages>
    <!-- stage 0 -->
    <_>
      <maxWeakCount>2</maxWeakCount>
      <stageThreshold>-2.1066884696483612e-01</stageThreshold>
      <weakClassifiers>
        <_>
          <internalNodes>
            0 -1 1 -12124268 -40381568 -1001889728 -8348780 -805262416
            -1140061056 -92239444 1355058432</internalNodes>
          <leafValues>
            -8.4545457363128662e-01 6.5818184614181519e-01</leafValues></_>
        <_>
          <internalNodes>
            0 -1 5 -243231736 -75468413 -195374080 -83028708 -729165662
            -241433568 -1844913512 -11147449</internalNodes>
          <leafValues>
            -8.1929057836532593e-01 6.3478571176528931e-01</leafValues></_></weakClassifiers></_>
    <!-- stage 1 -->
    <_>
      <maxWeakCount>4</maxWeakCount>
      <stageThreshold>-3.9822909235954285e-01</stageThreshold>
      <weakClassifiers>
        <_>
          <internalNodes>
            0 -1 10 -103546900 -1067079211 -738095100 -543847771
            -126704640 -376796887 -968855664 -1344001472</internalNodes>
          <leafValues>
            -7.2222220897674561e-01 5.4121863842010498e-01</leafValues></_>
        <_>
          <internalNodes>
            0 -1 2 -757926194 -853786166 747716642 -112867000
            -1056389348 -572717047 -1668630489 -69893472</internalNodes>
          <leafValues>
            -7.3972243070602417e-01 4.2228215932846069e-01</leafValues></_>
        <_>
          <internalNodes>
            0 -1 3 1642512375 1455998430 -1425960510 -1503127532
            -415157546 -274680551 1925392988 -825981582</internalNodes>
          <leafValues>
            -5.7373082637786865e-01 5.7612383365631104e-01</leafValues></_>
        <_>
          <internalNodes>
            0 -1 11 1892650086 1393557645 1090683293 -2125233094
            -1559414464 -1598922749 -104802112 481608512</internalNodes>
          <leafValues>
            -6.7441284656524658e-01 5.4483109712600708e-01</leafValues></_></weakClassifiers></_>
    <!-- stage 2 -->
    <_>
      <maxWeakCount>4</maxWeakCount>
      <stageThreshold>-3.5168308019638062e-01</stageThreshold>
      <weakClassifiers>
        <_>
          <internalNodes>
            0 -1 9 -511183394 -33455994 -1655786532 -1261899034
            -620119260 1415684136 1676216576 950286608</internalNodes>
          <leafValues>
            -7.6687115430831909e-01 4.0716612339019775e-01</leafValues></_>
        <_>
          <internalNodes>
            0 -1 4 644637175 -2105007754 -2127942435 -669465712
            973248731 -647950333 2063825453 -380589388</internalNodes>
          <leafValues>
            -5.6802791357040405e-01 5.2384251356124878e-01</leafValues></_>
        <_>
          <internalNodes>
            0 -1 16 2135384849 -1732036605 152061064 1162872919
            -1537192688 -2010598912 -653762952 -1510710528</internalNodes>
          <leafValues>
            -5.8453887701034546e-01 5.1124298572540283e-01</leafValues></_>
        <_>
          <internalNodes>
            0 -1 6 321119415 1673576743 1795256798 -425719776
            -1065349415 -2013199734 134218752 413962820</internalNodes>
          <leafValues>
            -6.1989742517471313e-01 5.3007626533508301e-01</leafValues></_></weakClassifiers></_>
    <!-- stage 3 -->
    <_>
      <maxWeakCount>5</maxWeakCount>
      <stageThreshold>-8.4532207250595093e-01</stageThreshold>
      <weakClassifiers>
        <_>
          <internalNodes>
            0 -1 0 -242557362 -791809760 1357013002 1299105564 822118830
            -2095971935 -1505753075 -424121263</internalNodes>
          <leafValues>
            -6.8838524818420410e-01 4.1396933794021606e-01</leafValues></_>
        <_>
          <internalNodes>
            0 -1 14 -9714603 302178712 -1023307257 -853606053
            -1591115135 1657621122 -1322653696 -374577344</internalNodes>
          <leafValues>
            -4.9739149212837219e-01 5.8377152681350708e-01</leafValues></_>
        <_>
          <internalNodes>
            0 -1 8 2085770496 1887822656 -762740468 -741785304
            -2071080441 -1196932885 -1072944960 -1345117918</internalNodes>
          <leafValues>
            -8.0212122201919556e-01 3.8821560144424438e-01</leafValues></_>
        <_>
          <internalNodes>
            0 -1 12 2141158423 783284222 2147397476 -1212690508
            -1518436484 -848249302 1693816732 -306368656</internalNodes>
          <leafValues>
            -4.5224645733833313e-01 7.3915368318557739e-01</leafValues></_>
        <_>
          <internalNodes>
            0 -1 7 -952686577 924352836 806420628 -983015218 284360845
            1694630112 1267204108 584872001</internalNodes>
          <leafValues>
            -6.9786906242370605e-01 4.9510255455970764e-01</leafValues></_></weakClassifiers></_>
    <!-- stage 4 -->
    <_>
      <maxWeakCount>3</maxWeakCount>
      <stageThreshold>-3.3664956688880920e-01</stageThreshold>
      <weakClassifiers>
        <_>
          <internalNodes>
            0 -1 13 -574882571 -1648427011 -2 1878884351 -554853807
            1073741695 -159646164 -508295520</internalNodes>
          <leafValues>
            -4.8186528682708740e-01 7.7285319566726685e-01</leafValues></_>
        <_>
          <internalNodes>
            0 -1 17 -1368442059 -1547960484 1736293997 -941327124
            792462677 -302188546 2121691488 -1956454431</internalNodes>
          <leafValues>
            -5.0286501646041870e-01 7.2661048173904419e-01</leafValues></_>
        <_>
          <internalNodes>
            0 -1 15 25372444 -1436115398 1073478527 -462798984
            -138901644 -573116449 -2022263337 -260924112</internalNodes>
          <leafValues>
            -5.8139473199844360e-01 6.8545281887054443e-01</leafValues></_></weakClassifiers></_></stages>
  <features>
    <_>
      <rect>
        0 0 27 26</rect></_>
    <_>
      <rect>
        0 0 32 31</rect></_>
    <_>
      <rect>
        0 7 31 14</rect></_>
    <_>
      <rect>
        3 32 13 20</rect></_>
    <_>
      <rect>
        5 17 10 13</rect></_>
    <_>
      <rect>
        6 0 31 20</rect></_>
    <_>
      <rect>
        13 54 26 15</rect></_>
    <_>
      <rect>
        18 41 13 16</rect></_>
    <_>
      <rect>
        21 1 26 15</rect></_>
    <_>
      <rect>
        27 34 23 22</rect></_>
    <_>
      <rect>
        31 5 23 31</rect></_>
    <_>
      <rect>
        49 16 14 19</rect></_>
    <_>
      <rect>
        50 69 11 10</rect></_>
    <_>
      <rect>
        60 20 13 23</rect></_>
    <_>
      <rect>
        63 18 12 24</rect></_>
    <_>
      <rect>
        64 5 5 5</rect></_>
    <_>
      <rect>
        73 5 9 12</rect></_>
    <_>
      <rect>
        76 38 5 4</rect></_></features></cascade>
</opencv_storage>
