<?xml version="1.0"?>
<opencv_storage>
<stage1>
  <maxWeakCount>4</maxWeakCount>
  <stageThreshold>-3.9822909235954285e-01</stageThreshold>
  <weakClassifiers>
    <_>
      <internalNodes>
        0 -1 1436638 -103546900 -1067079211 -738095100 -543847771
        -126704640 -376796887 -968855664 -1344001472</internalNodes>
      <leafValues>
        -7.2222220897674561e-01 5.4121863842010498e-01</leafValues></_>
    <_>
      <internalNodes>
        0 -1 8335 -757926194 -853786166 747716642 -112867000 -1056389348
        -572717047 -1668630489 -69893472</internalNodes>
      <leafValues>
        -7.3972243070602417e-01 4.2228215932846069e-01</leafValues></_>
    <_>
      <internalNodes>
        0 -1 190495 1642512375 1455998430 -1425960510 -1503127532
        -415157546 -274680551 1925392988 -825981582</internalNodes>
      <leafValues>
        -5.7373082637786865e-01 5.7612383365631104e-01</leafValues></_>
    <_>
      <internalNodes>
        0 -1 2029928 1892650086 1393557645 1090683293 -2125233094
        -1559414464 -1598922749 -104802112 481608512</internalNodes>
      <leafValues>
        -6.7441284656524658e-01 5.4483109712600708e-01</leafValues></_></weakClassifiers></stage1>
</opencv_storage>
